#ifndef GESTURE_WEIGHTS_HLS_H
#define GESTURE_WEIGHTS_HLS_H

#include <stdint.h>

const int32_t rnn_weight_ih_l0_q[] = {
    22442, -6255, 798, 6220, -16655, 1146, -7743, 5127, -1586, -17980, 16049, 9804, 20402, 431, 10217, 12687, 5117, -5386, 1893, -3385, 22069, -4342, 18546, 1141, 9028, 20684, 7379, 10359, 7595, 2182, -3585, -290, -1645, -14144, 17335, -13921, 5886, 9720, -2502, -7596, -28466, -6021, -9082, 10654, -29439, 904, -2399, 24948, -21272, 19681, -5558, 9956, -31048, -9294, -4429, -5813, 35726, -9978, -19123, -7023, -30762, -13615, -3302, 2593, -20628, -14985, 14020, -12531, -11527, 8676, 17413, 12411, 18688, 19045, 17118, -17535, 6126, 2473, -914, -18212, 5361, 1105, 4351, -7164, -16050, 5477, -1596, 3026, 1459, 4882, 13679, 14429, 7207, 17093, -3381, -7587, 3125, -14974, 7341, -12236, 11060, -5265, 22862, 8481, 21485, -17621, -10330, 11928, 17694, 9633, -4501, 8899, -18523, 745, -12751, -4343, -17741, -10298, 4354, -7198, -19783, -18204, -26381, -4833, -4041, -19012, -1869, 8015, 8315, 13695, -9436, 3141, -7713, 25828, 3702, -1476, 6673, 9113, 10131, -31668, -5643, 13349, 17351, -14113, 13674, 15079, -18959, -21860, -21165, 6408, -3922, 16854, -18192, 10442, -7416, 12629, 7733, 13596, 23900, -15204, 28423, -3122, 25829, 22589, -19537, -138, 3130, 7990, -11563, -5780, -22569, 10592, -3568, -9661, 11222, -2672, 2153, -453, -22106, -10412, -7243, 20140, 31561, -4723, -13, -21775, 4678, -1749, 4439, 19568, 14884, 17183, -6836, 14775, -1841, -15917, -17222, -1375, -7491, -6910, -14563, -2234, -10979, 6125, 11270, -642, -25140, 16373, 8652, -15474, -12668, -521, -15352, -645, -7583, -12447, -34935, 21188, -42631, -792, -9548, -6537, -5789, 1770, -8581, 6067, -9550, 7092, -7384, 19864, 10331, 5347, 26061, 22852, -3225, -9048, -27309, -17258, 10591, -11013, 14296, -10857, 19132, -7752, 10835, 12317, 3208, 2793, 8876, 28342, 4451, 3920, -29, -15293, 16786, 2056, -15363, 19056, -12666, -11325, 9440, 1861, 10973, -3534, 4161, 4858, 8121, 18198, -5665, 6819, 17799, -13095, 3075, -3577, 22129, 13621, 2361, -1030, 3375, 12101, -10050, -6359, -6563, -3785, 2046, 12651, 11011, 25237, -6579, -522, 30140, -1643, 1964, -23638, -24495, -7331, 21644, 4964, 16089, -3511, -32418, -535, 3690, -1794, 20549, 30197, -99, -23493, -6120, -4389, 2182, -12012, -6544, 5853, -18900, 41364, -8492, -10585, -9727, -3178
};

const int32_t rnn_weight_hh_l0_q[] = {
    8375, 17529, -6060, 18197, 4846, 13584, 22804, -9452, -2265, 7434, -3075, 25242, -20921, 8298, 3456, -22939, -3072, 1836, -1796, 7920, -24624, -29596, 8503, -2744, 21307, -7179, -5995, 11645, 9267, -26993, 1142, -11558, 13702, 9745, 12281, -3833, -1912, 12099, 25105, 4125, -6283, -5833, 10283, 23166, -24573, 8844, -2244, -26183, 5842, 3707, 9065, -1174, -16063, -9778, 9962, -11052, 14257, -6557, 2978, 12206, 2661, -22217, 4646, -29623, 5108, 14913, 1549, -7771, -13981, -7316, 218, 6936, 2545, -2321, 17904, 12630, -15705, 710, -699, -27589, 15850, 1330, 6870, 2277, -8076, -22455, -12429, 4877, 1502, 7865, 3268, 5383, -958, -8148, 5981, -17468, 14497, 9465, -14150, 13132, -4419, 4057, -30198, -573, -6728, -14648, -17904, -14885, 2301, 14964, -5314, 4708, -11347, 9304, -1225, 3415, 8464, 4792, -9371, 6685, -9735, 8671, 3008, -12023, 18506, -1784, 1056, -17869, 9737, 4324, -2926, 7209, 3668, -9630, 12497, 370, 9829, -3350, -2754, -1171, 9162, -3713, 3373, 5812, -3584, -8574, 9425, 9371, -1886, 4833, 8211, -27163, -14134, 2738, -6844, -13789, -1798, -14531, 17629, -27717, 5890, 12197, -13538, -10780, -18099, 7952, 485, -4379, 8057, -654, -9285, -6781, -24529, 8243, 4243, -26360, -1291, -3909, -5944, -6267, -23923, -1956, 4955, -9199, -25318, -5125, -5852, 159, 1846, -2940, -14387, -10311, -15374, -9514, -15949, -32857, 22583, 5446, 25514, -16509, -6184, -8216, -1546, 10817, 17295, -15651, 7695, -14217, -26220, 383, 1829, 1909, -12817, 1870, 18550, -27075, -27928, -35008, 2869, -3232, -26749, 10508, 10254, -19400, 9249, 4921, -1919, 940, 4579, -11177, 2356, 13263, -469, 15692, -8184, 6195, 12450, -5235, -5356, 6945, 8855, -7987, 1037, 10058, 12028, 6419, 7999, 13988, -3953, 8783, 4195, -9269, -9080, -10721, -10827, -8281, -3552, 8763, 14004, -7983, 5833, 4400, 9184, 1226, 2400, 11346, -1932, 9509, 2302, 8121, 4037, 15223, -97, 7546, -3863, 3263, -8478, 7820, 1540, -3164, -2580, 7234, -8380, -12061, -18810, -5270, 3614, 16475, -1425, 991, 8350, 8090, -2072, -634, -4785, 9310, 11442, 6648, -16792, 15457, 12380, 5978, -1121, 7071, -4746, -8349, 9768, 13675, -5570, 6524, -2375, 18758, 8718, -10336, -3630, 4419, -19401, -5204, -21981, 6283, 11104, -5121, 2954, 12249, -14267, -15883, 10773, 5541, -11860, 6109, -3628, 1808, 14860, -6146, -24645, -292, 3714, -23898, 10560, -7378, 3036, -16557, -716, 12235, 6293, 5555, -10194, -5283, 9647, -5746, -14258, 8436, 15091, -4708, 9014, -28074, 2092, 9725, 27012, 2266, 787, 10989, 4583, 18979, 2666, -4257, 11095, -9700, -16824, 11720, -15734, 4334, -27163, 17651, 14440, -23148, -13058, -38929, -29272, 6287, -23914, -15264, -4757, -1921, 20693, -18330, -10860, -7854, 18608, -22099, 15412, -21095, 4487, -10037, 3272, 15964, 26621, -39225, -22087, 2472, -12304, -17315, 20220, -7527, -2120, -4758, 3500, -11194, 6386, -7229, 1101, -14431, 505, 4539, -33144, 10404, 7930, 479, 6371, 10048, 2535, 16514, -7654, 15702, 2336, 9910, -750, 1774, -14142, 18977, -1279, 6186, -11071, 1414, -7562, 973, -4924, -11009, -17736, 8455, -11913, -15721, 8170, -10735, 6474, -19010, -25541, -19727, -2576, 7404, 6089, -2756, 163, 2359, 7719, -5730, 2095, -11559, -12733, 3153, -19746, -11487, 19761, 4012, 12709, -6463, 898, 9360, 11308, 2639, 10645, -8245, -41048, -4513, -9367, 3904, -5256, 21758, 8775, -7590, 15669, -20113, -16756, -3219, 19665, -23864, 3344, 12825, 723, -2537, -2186, 5560, -146, -12863, -14718, 16191, -4297, -51102, -14224, -21094, 5777, -250, 10514, -4795, -9515, 6818, 2599, 14880, 12265, 4786, 14113, -8192, 10576, 6168, 7160, -11776, -10805, -6447, -48067, 3093, -5029, 1152, -2931, 4794, -28208, 1647, -5083, -23794, 10119, -19156, 17450, 156, -6930, -14393, -16554, 19937, 5417, 4261, 10397, 12012, -3421, 4466, -2876, 9267, -3914, 10414, -6172, -8697, 2380, 2156, 15193, -14399, -6079, -1582, 6388, 11028, 62, 7966, 10628, -51117, 2119, 16114, 3847, 128, 7058, 11639, -1241, -10566, -7528, -10168, -8615, 13176, -22219, -6010, 4715, -9927, 9716, 13936, 9119, 3213, 7399, -15719, -553, -1544, -1565, -14208, -1488, 1214, 4481, -36281, -27624, -6602, 10455, -19263, 14810, -355, -3883, -6028, -13157, -14944, 12509, -12205, -3176, 2893, -3328, 714, -10946, -15885, 12340, 6242, 12238, 743, 11572, -4930, 20869, 5990, 846, 4180, 7509, 5307, -17006, -5934, 7490, -14872, 3155, 9317, 10344, -11431, -13452, -887, -246, 7352, -1223, -12022, 3349, 2958, -292, -1389, -5473, -20500, -10139, -22083, -12610, 495, -12629, -13026, -27152, 2098, -6627, 2145, -7632, -2804, -7477, -8347, -5734, 16943, 1685, -9566, 6836, -3071, 257, 10205, 3136, 2728, -5749, 5605, 12206, 2053, 8441, 1141, 14347, -4923, -21201, -21526, 1386, -6584, 11893, -13608, 7571, 13425, 20428, 2936, -6566, -5006, 28165, -3781, -881, 4372, 5524, 9297, 8456, -3147, 4678, 16396, 5882, -14265, 2453, 15695, -379, -4152, 1314, 4995, 10164, 18009, -7993, 4083, 829, -15434, -1477, -373, 27732, -22210, 5805, -10209, -10779, 1756, -14949, -2336, -8132, -3039, -2322, -7932, -1907, 4071, -11360, 8431, 2917, -12581, -22647, -1688, -17211, 5505, -13000, -16422, 13967, -5851, 6195, -15293, -15932, -8049, -13355, 1821, -8516, -1466, -8130, 11789, -18812, 4566, -16011, 12815, 2840, 2434, -449, -10228, -20030, -8922, -5397, 1226, -4920, 14915, 8681, -15133, 840, -17247, -4717, -9864, -16263, 11074, -1191, 12343, 3992, 2899, -7978, -22763, -13966, -1043, -5451, 10619, 15750, 6266, 10960, -37017, -33068, -5414, 10288, -23276, 16242, -8501, 3873, -2870, -10278, 9433, 25179, -2345, 11939, 10391, 5504, 9082, -5547, -3154, -6256, -8281, 5634, 11301, -6137, -26359, -20610, 6623, 4000, 2304, -27974, -13576, -239, 8749, 13113, 370, 10704, -4224, -4409, -3327, 13113, 21112, -511, -2145, 6322, 21128, 4191, -2023, -10412, -16281, 11819, -64, 2492, -4261, 9541, 6162, -1874, -22251, -1266, 5379, -4101, 10364, -7663, -13379, 14905, -13200, 2265, 8220, 13137, -25259, 8899, -5495, 176, 12776, 4110, -13049, 17306, 13138, 11642, 10717, 2157, -1472, -15128, 243, -578, 9517, 11057, -575, 7256, -3268, 392, 5570, 14823, 11474, 17547, 9630, -3808, 942, -11183, -17529, 7505, -3338, 4006, 13644, -10398, -6505, 7778, 6905, 16728, 5714, 8637, -92, 313, -23165, -8346, -19072, 13086, 7325, -6272, 10308, -2762, 12639, -22037, -3761, -6411, -7154, 361, -28193, 19871, 16444, -16027, -5474, -5422, -2242, 19027, -9929, 4388, 1406, 8901, -21465, 13440, 2798, 10172, -649, -1035, -8492, -20175, -14391, -11329, -18928, -4451, -10993, -13532, 1062, -7291, -9054, 8999, -5823, 16344, -1596, -12167, -17656, 10885, 11695, 610, 6729, -23281, -9352, 12068, -18885, 5714, -5579, 7370, -87, -13565, 745, -16249, 9592, -9214, 10099, -13002, -18973, 10807, 3492, -400, -8696, 20252, 12382, -10481, 5901, -14783, -3721, -12754, 3219, 12367, -17578, 10760, 5123, -7019, -15775, -9710, -6145, -3443, -6268, -24189, 13973, 14022, 12391, -13229, -7639, 3208, -3863, -5884, -24703, 7056, -29249, -8840, -542, -135, -12781, 5047, 5446, 13779, 8223, 18227, -2387, -8282, 8248, 3038, -19594, -28720, -19084, -10989, 10137, 12539, 11321, 11432, -11679, -3542, 6535, -1026, -5814, 3059, 19611
};

const int32_t rnn_bias_ih_l0_q[] = {
    1902, -12668, -9625, -13273, -1205, 7018, -1181, -17786, -17346, -19101, 4018, -9772, -18870, 4741, 17503, 20653, -13438, 6489, -8506, -8899, 12588, -839, -12383, 11073, -3851, -8443, -14081, -9634, -3738, 6984, 2231, 4221
};

const int32_t rnn_bias_hh_l0_q[] = {
    121, 8498, -14564, -9805, -13264, -4587, 2326, 2164, -18257, -3375, -12341, -14058, -3193, 8736, 17485, -201, 2066, 5339, 3634, -7215, 16407, -8605, -3234, 6948, -15413, 9365, -1811, 5253, -328, 12653, -2903, -6287
};

const int32_t rnn_weight_ih_l1_q[] = {
    683, -5145, -17255, -6167, 12415, -9804, -7800, 7187, 4188, -2421, 15972, -11922, -13836, 10823, 4534, 12092, -13488, -4938, -13630, -11328, 7364, -19324, -10677, 4492, -12046, -11712, -10963, -8671, 11048, 14106, 508, -9731, 7440, 10084, -6182, -41520, -11642, 10329, 31079, -4544, 3766, 19914, -44813, 23348, -8398, 4477, 19467, -31744, 7343, 12390, 12843, 25640, -9263, -26474, -3333, 6001, 18567, -17245, -16443, 13602, -32897, -7421, 24361, -52266, -161, -15250, 1846, 15694, 2198, 2635, -12562, 9086, -2797, -9190, -9157, -5306, -19260, 4871, 13496, 21482, 3522, 1694, -22937, 1955, 19360, -207, 1616, 13679, -15951, 8969, 8906, -10148, -1621, 32970, 1688, 9581, 3706, -9382, 1420, -2770, -845, -7191, 6261, 3850, 9225, -4716, -516, -457, 10679, 2545, 10668, -13049, -4577, 8417, 10574, -3205, -2711, -4775, 4403, -19777, -15289, -12486, 2199, 1678, 2683, -8630, -10466, -5252, -11567, -8398, -7624, -12320, -5858, -39, -610, -7345, -2458, -10545, -10091, -3734, -8540, 6820, -12765, -7673, -4524, 6546, 8097, -8955, 1845, -9403, -4011, -8957, -5865, -3732, 3984, -12977, 4451, -2171, -9274, -5143, -11747, -13652, 2807, -16932, -10081, -65136, 8420, -6448, 12822, 25028, -20801, -6443, 2716, -23622, 8511, -17325, -1880, -13660, 1478, 19145, 14131, 22350, 8788, 41773, 10713, 7015, -7899, -82, -21167, 29476, -26813, 6619, 28929, 7734, 34191, -4644, -9241, 4564, -29758, 4496, -28084, -10093, -4561, 20857, -6840, 7036, -14121, 14396, 14144, -4448, 15953, 8694, 9940, -7336, -5742, 3463, 8980, -13990, -5530, -11004, 12083, 11107, -13054, 9794, -8389, 7908, -12023, 11288, -1255, -11571, 11116, 11615, 586, 13890, 25482, 10440, 30425, -9812, -2728, 18602, -5983, -8534, 860, -10647, -8065, 12705, 7591, -376, 767, 3726, 14059, -6002, -541, -10488, -8408, 9063, 12213, -3241, 1996, -2693, 6274, -12329, -21350, 7206, -7105, 9817, -21057, -14502, 4897, 2431, 17474, -6914, 26379, -21332, 19054, 1640, 7320, 6994, -7585, -4402, 8547, 1030, 5863, 10769, 9185, -9893, 721, -7201, -4066, 10219, 21030, -608, 15434, 16730, -4586, 5926, 6342, 7258, -3474, 12382, -2471, 15258, 2437, 10020, 2093, -14782, 6896, 1425, -1251, 27042, 11107, 8395, -2940, 13913, 14912, 1309, -4214, 3931, 5051, 27352, -14762, 9001, -9618, 809, 391, 3110, 10605, 11714, 6011, 13260, 18765, 15375, 55927, -4613, -15157, -5419, -3990, 3228, 30732, -5532, -14361, 752, -3191, -13105, 28712, -2809, 16673, -3882, 12383, -757, -21592, -4904, 15720, 6174, 21248, 2109, -130, 17531, 301, 6419, 3368, 7415, 8875, 5070, 46977, 12187, -32056, -14063, 175, 2167, 25500, -15154, -15938, 14452, -15121, -32750, 2040, -13416, 9731, 9324, 12965, -3464, -35884, -246, -529, 292, -307, 3610, -16794, 14808, 12504, 14115, -2179, 11790, 25511, 7739, -13559, -6364, 2598, -4025, 8350, 3587, 13665, -6775, -3669, -32244, -5508, 12287, 932, -2, -10242, 1242, -28450, 2372, 18870, 104, -3554, 2129, -15536, 12365, 2905, 9752, 9857, -4866, -12100, -2113, -10426, 10042, -24024, 5465, 14084, 16994, 13780, 13948, -29944, 8304, 11561, 3726, 8577, 1335, -27987, 8498, 1012, -14671, -306, 18556, 12648, 6275, -17458, -12467, -15093, -7567, -7273, 1949, -8041, -3950, -4381, -9540, 1287, 632, 39655, -17636, 19423, -3822, -18177, 1414, 6919, -17555, 7601, 8633, 9603, 24379, 7048, -6642, -803, -7470, 10786, -13348, 30415, 17383, 1163, 7814, -7570, -1208, 6539, -2688, -1466, 2021, -8493, -14389, -27831, -4624, -41722, -7261, 26040, 3108, -971, 9670, -42091, 14506, -11461, -3046, 10330, 5789, -35068, -11031, -18355, -11681, -14387, 12471, 22320, -6981, -8126, 1893, -36957, -15199, -46402, 25719, 31348, 26817, -18576, -14432, -23357, -29522, -15794, 25120, 7618, -30326, 9646, 16567, -63147, 6231, 10809, -4845, -4385, -11333, 2422, -13181, -18509, -21489, -14239, 543, 20644, 31903, -2827, 2269, -10795, -1645, 12447, -19110, -230, 9039, -7592, -437, 21330, -10642, 27615, -9498, -43549, 9774, -12265, -27061, 11907, -28243, 5027, -1326, 3891, 9315, 12946, -5929, -462, 16424, 24812, -13472, 3110, 7308, -7824, 11097, 18163, -9943, 1370, -4688, -1126, 14851, 510, -1698, -25081, -8411, -5440, 15091, 17650, 5453, 15106, 11076, -11490, -1776, 2165, -6837, 19003, 12366, 11741, 3411, -4199, 5099, -12879, 14412, -1408, -204, -23062, 2667, 11828, -14570, -17206, -6648, 24749, 11832, 8913, 19494, 8195, 2733, 13298, 5624, 12284, -29356, 748, 7022, 13640, 22034, -10588, 31818, -326, 10714, -8112, 11403, -9324, -316, -6830, 7928, 4135, 24638, -61852, -60818, -38855, 10615, -9988, -38032, -23076, -4144, -41085, -24327, 8410, -44665, 45623, -10967, 483, 21213, -31759, 4897, -3326, -32467, 11284, -1632, -35989, 4400, -507, 3267, -3037, -17815, 17938, 31165, -25311, -23438, 1767, -2053, 72, 8198, 12920, 32383, 7725, -10030, 15282, -7945, -3983, -3310, -3343, 7609, 10133, -26473, -13261, 15679, -1740, 3186, -11393, 21838, 11602, 547, -17831, 5354, -8678, -13471, 19841, -15163, 12588, 17765, -2259, -8095, -25211, -43344, -59797, 10034, 29590, -32548, -10993, -6546, -20663, -11620, 7821, 11938, -198, -6338, -31302, -3638, -9817, 6746, -8473, -51284, -31475, 6257, -5411, -27465, -56706, -14767, -23993, 23949, 3475, -24925, -14028, 6636, -3759, 1928, -11336, 166, 4851, 7424, -3584, 8751, 11660, 19909, 31978, -7840, 3925, 14908, -7962, -7022, 4932, 7901, -4774, 18300, 1452, -16231, 14164, -442, 2481, 7903, 4520, -7352, -17583, -10892, -8166, 3624, 1865, 9877, 127, -30800, -24098, 10407, -5107, 15127, 4363, -15191, 28231, 17914, 6235, -2167, -2963, 673, 16181, -8906, 4280, 7787, 7296, 6805, 15113, -6282, 17315, -7382, -1029, 713, 13453, -4004, -14036, -23619, -18158, -10268, -17066, -55032, -30053, 8233, -9030, 12804, -8594, -7473, 15700, -8895, 8845, -22420, -6889, -7413, 6476, 23704, -96, 29601, 5538, 23187, 3861, -6364, -24669, 4257, -17332, 9790, -23902, 203, -952, -5357, -3911, 2514, 7386, 4952, 585, -1704, -5923, -3433, 4861, -16027, 1010, -12167, -10358, -9798, -4813, -7281, -11333, -11612, -12292, -606, 9582, -5512, 7330, -715, 1289, 11591, -1336, -2022, -4688, 17669, -5449, 9834, -3949, 16311, 18252, 25961, 10778, 3497, -14982, -10288, 2373, 2492, 14530, 6336, -27410, 22308, -8134, -7307, -12952, -21191, 4228, -1682, 3124, -11903, 2052, 13756, 7977, -5224, 11778, 14157, -14910, -14477, 6085, -2123, -4439, -12899, -412, -7978, -15949, -368, 14777, -12582, 5310, -10604, -7650, 2864, 4663, 1106, -9074, -1775, -1087, -12940, -9089, 2330, -7144, 285, -13658, -8713, -1140, -3935, -5701, -2175, 5206, -1484, -14614, -9095, -11618, 7739, 8401, 29057, -34304, -6096, -23110, -10083, 30275, -30462, 4204, 3759, -18102, 19746, -26760, 7872, -9256, -33324, 8702, 5434, -4917, -11826, -3903, 20245, 9033, -8631, 29339, 12197, 10739, 33323, 10040, 3628, 2880, -113, 7436, -43231, 5461, -8787, 16770, 25498, -5015, -1459, 26665, -8207, -11294, -23883, 16129, -11541, 31562, 14310, -15993, -160, 11890, -6313, 30135, 4225, 10693, 16230, 6912, -1948, -13533, -24352, 20782, 10497, 3421, -7807, 5619, -3232, 16653, 5264, 24317, 20782, -6521, 21259, 3867, 25213, 15191, -22952, 16002, 24892, -9433, 26682, -14978, 12972, 19736, 9012, 518, -10148, 2921, -10488, -1820, -13161, 2229, 9837
};

const int32_t rnn_weight_hh_l1_q[] = {
    7483, -635, 13712, -5238, 2542, -19152, 4709, -12904, -905, -2664, -13397, -12902, 9108, 14952, 4300, -13130, -84897, -5628, 719, 3137, 17266, -11694, 1690, -15052, 14490, 2126, -13212, 8547, 112, -12500, -14843, 2449, -11751, 25034, -12271, -1508, 8503, -16288, -1784, -5917, 3205, -9774, -4450, -5777, 6489, -766, -2908, 8372, -62303, -26886, 12776, 5899, 7248, 10333, 22689, -11394, 7060, -15391, 8266, -545, -9404, -13250, 9230, -9587, 13708, -17636, 5018, -5691, -3721, 10018, 12436, -17103, 13364, -4124, -10510, -14597, 6206, 11644, 4433, 7758, -44762, -851, -3005, 5413, 6426, -4185, -3806, -18532, 6122, -721, 7223, -7163, -2816, 10546, -7347, -5665, -25136, -20685, -26667, 14971, 971, -481, -7461, 15342, -10125, 6418, 3827, -2418, -2374, -8926, -11372, -4741, -27923, -1023, -39837, -1566, -6955, 4215, -424, 5314, -14138, 1770, -6063, -1353, 6302, 1827, -6541, 5487, -7703, -9217, -1830, -9722, 969, -2122, 1980, -3957, 5763, -2015, -1016, -1137, -1137, 3314, 7781, 907, -5246, 6125, -1922, -891, -4551, 1953, -9746, 5263, -5173, 6253, -3067, -3146, -5901, -4006, -13420, 1701, -1040, -13623, 13449, -1023, 6054, 13139, -7477, 15486, -3690, 326, -5939, -1391, 2313, 5617, 12138, 1992, 46855, 8170, 8887, 8551, -15319, -9345, 12251, 9635, -22062, 24643, -1695, -7489, -701, 7273, -431, -10157, -9219, -10538, -8641, 7583, 10218, 2435, -7622, -2153, -5062, 6143, -7802, -7542, 11128, -4829, 1256, 4218, -9061, -12337, -7709, -12171, 11322, -5491, -9889, 4709, -2979, 931, 5771, 6601, -15620, 10419, 4287, -21118, -9574, -24747, -34120, 11577, 5449, -1450, -2605, 17724, -14219, 11364, 15593, -4057, -7851, -7572, 3298, -11244, -17916, -7646, -24562, 11573, 1073, 9641, -663, 18893, -14812, -2947, -4188, -7338, -3635, -16406, -1235, 6408, 11760, 6718, 1163, -9252, 1644, -12894, 6854, -16756, 20680, 16011, 5423, -8441, -11925, 13623, -16817, -11547, -11078, -7759, 15315, -25549, -1926, -39556, -4393, -1429, -745, 4012, 4642, 6301, -7406, -4873, 4791, -20275, -3438, -17788, 10720, 14525, -76, 6144, -971, 23291, 12045, -94, -10222, 42, -3586, 11863, 4928, -95, 16082, 497, 7170, 13745, -29112, 7798, -27666, 11305, -8888, 11988, -6581, 8789, -8982, -7517, 11976, 6726, -8330, 5694, -5974, 143, 9146, 9398, 6163, 13870, 7685, -4132, 8209, 4815, -9852, -7158, 1538, -8338, 33837, 3878, -10778, 4591, 1852, -4587, 5708, 17869, 15515, -1548, 1952, 2262, -3349, -3644, 13289, -1072, 4798, 8773, -161, -11149, -5322, -8694, 585, -2972, -12578, 12398, 1461, 7605, 23169, 2189, -6956, -1210, 15268, 9502, -9194, 7890, 2680, -2457, -24753, -345, 10558, 7334, 1676, -492, 9400, -11899, 7694, 7171, -3503, 8453, -604, -26299, -11709, -3580, -13618, -16584, -12057, 7401, -4797, -5956, 982, 12802, 480, -6147, -66601, -8161, 11700, 19166, -22004, -8896, -3263, -14599, -15226, -4074, -8606, -15801, -11574, -9666, -22712, 11978, 8478, 5389, 12880, -11100, 5870, -16016, 7433, -13773, 2848, -283, -14551, -12483, -5871, 3794, 10392, 2699, -27618, -8636, 3902, -447, 10097, 7905, -248, -14506, -14569, -8710, -10371, 3217, -2601, 4393, -13754, -7605, -1804, 5069, -5461, -12102, -7956, -14625, 1175, -9730, -3939, -19852, 7447, 5686, -5450, -29759, 6160, -7686, 15972, 7307, -22273, -7720, 1130, -2449, 2571, -15496, -3208, -16238, 12165, -655, -4812, -6286, 554, -1272, -7157, 9069, 13147, 8261, 7327, -15812, -18126, -4763, 4623, -2632, -7029, -2727, 811, 3517, -5645, 2052, -39721, 2271, -6317, 6825, 5523, 8645, -2518, -5883, 4018, 10444, -7491, 5454, 2143, 1759, -3003, 7409, -8135, -5046, -12031, -10120, -1235, -10618, -7526, -341, -8687, -27369, -4455, -1223, -3514, -6223, 16568, -19433, 12972, -5747, -16905, -15783, 1688, -503, -31943, -3746, 28509, 7969, -781, -10414, 3087, 10703, -8431, -18007, 5090, -2421, -19257, 1696, 1948, -5065, -7627, -5721, -8057, -4096, 11102, 3036, -7832, -12259, 12706, 1050, 6658, 27935, -2934, -8585, 10529, 1774, 335, 9374, 21945, 1144, -6517, 10647, 5694, 6824, 15208, 2974, 10636, -1102, 18961, -13874, 3481, 292, 16549, -25459, 10244, 5494, -9983, -2957, 3642, 10122, 5620, 5347, -31171, -16745, 10146, 1593, 7207, -4980, -1732, -6756, 14131, -2989, 12897, 1470, -504, 1306, 12109, -874, -6713, 725, -2476, -6389, -175, 8483, -4379, -3363, -11630, -5220, -7950, 801, 1822, 12664, 29220, -608, 6308, -7498, -286, 13240, -34351, -4316, -13003, 6724, -29614, 16846, -18444, -29025, -6202, -10223, -5635, 14504, 12611, -3151, 4584, 1721, 6144, 4260, 2147, 12819, -3868, -25502, -516, 4506, -9990, -7053, 9170, -4502, 2941, 5627, -1526, -15982, 17475, -24301, 17723, -2098, 407, -2451, -1483, 1108, -357, 2751, 9648, -7554, 9565, 2036, 872, 22969, 11365, -9667, -989, 18883, 4569, -110, 5726, 7527, 6186, -3598, 22043, 10170, 30480, -11625, -2527, 9385, -34850, -3607, 12770, 8470, -27510, -1624, -8133, -8881, -4620, 6714, -19360, -686, 13500, 23146, 7330, 5051, -899, 7414, 26328, -10666, 10860, -16444, 2050, -36508, 10378, 11295, -16671, 7079, -40823, 7891, 5116, -12008, 9895, 1466, 37017, -12124, -5641, -5001, -234, 12105, -5554, 3931, -6839, -2022, -5125, -24460, -15132, 14544, 6070, 8560, -16080, 21215, -10581, 12453, 6605, 3352, 6546, 9033, -5323, 6138, -16856, -12200, -17997, -10268, -7494, 404, 1087, -3163, -10672, -8242, -5923, 3285, -8723, 6459, -2657, -3212, -892, 741, 3466, -12510, 6236, -4365, 6134, -21134, 20462, -4938, 13423, 2511, -34825, -9357, 3338, -7425, 10062, 23713, 13863, -30875, 3653, -22586, 2086, -6363, 11528, 205, 16622, 21950, 6492, -2836, 14170, -9042, -2922, -3658, 14745, -9964, -10247, -2465, 13489, -4851, 14528, -2153, -12463, 5025, -6144, -4235, 3188, -2419, 49422, -3494, 17079, -859, -14295, -1236, -2230, -2843, 6038, -10826, -16301, -1792, 275, -4171, -9164, -8643, -19885, -6357, -16025, -3175, 6958, -11817, 4583, -2082, -7702, -1094, -399, -4890, -2704, -10112, -5182, -16423, -207, -8945, -7258, -15474, -4310, -3929, 18734, 760, 5218, -17411, -5190, -4926, -1645, -4646, -14056, -16848, 4994, 1999, -7874, -16237, -4493, -15796, -1056, -21765, -395, -425, -7627, 7655, 7744, -7700, 12718, 8472, -8616, -924, 12177, -15970, 4454, 4926, 7644, -976, 13860, 8747, 5532, 6896, 12747, 10779, 14166, -9399, -2158, -9535, 2450, 6131, 12507, 499, -9622, 9959, -15566, -14517, -16261, -33, -9559, -9666, -10782, -9106, -11098, 744, 2385, 2611, -6188, -8328, -1627, 7613, 3515, 4385, -10276, 274, 4194, 2303, -1820, 813, 10034, -10604, 7355, 3483, -5393, 3115, 7164, 12756, -12515, 9869, -4199, -10750, 7076, -7518, 2802, 4153, 18227, 14595, 3807, 13597, 13817, 774, -2908, -1728, -8113, 3074, 9482, 3899, 9941, -14445, 2012, -2915, 102, 3559, 7279, -11262, -9270, 18237, -3633, -19490, 14744, 4013, 10247, -6377, -7665, -10970, 15949, 11832, 8842, -1838, 10272, -16331, 1049, -23277, 11330, -13344, 12441, 18388, 6231, -4154, 773, -1363, 14252, -18281, 1368, 10315, -3611, 19560, -3080, 4191, -6081, 2576, -3950, 14365, 705, 1712, 16105, 6178, -2756, 10449, 10622, -10733, 1744, 14008, -30885, 18479, -12726, 2557, -35877, 706, 2944, -10009, -1784, -7672, -16720, 11703
};

const int32_t rnn_bias_ih_l1_q[] = {
    4772, 13509, 12725, -6697, -8450, 1863, -6555, -20031, -4071, -15238, -26583, -24963, 8306, 18184, 14197, 15387, 18983, -17592, 15413, -6068, -775, -1816, 5244, -15548, -6337, -1306, -1842, 7076, -14007, 7151, -20646, 5383
};

const int32_t rnn_bias_hh_l1_q[] = {
    13319, 19808, 16859, -21550, -6393, 2144, 9497, -13665, -988, -7434, -11580, -28464, 13287, 20742, 19864, 8182, 14236, -13951, -240, 10110, 13542, 8769, 4004, -22294, 6274, 595, -2466, -1466, -1519, 14904, -7425, 9170
};

const int32_t fc_weight_q[] = {
    5160, -21815, 20790, -13771, -9674, -11539, 9920, -5674, -6387, 18283, -5968, 3970, 1853, 6907, -19386, -215, 461, 2799, 8143, 15938, 3204, 11846, 1655, -42613, -746, -14386, -17592, 16874, -5277, 20924, -12793, -591, 13832, 20971, 8285, -23149, -4309, -61830, -81509, -37290, -17760, -46239, -13800, -57019, 600, 18030, -20127, 4259, -18259, -191214, -3839, -22108, -46755, -1112, 29076, -47189, -38374, -76043, 617, -14897, 2852, -31917, -68554, 9420, 9655, -66130, 9730, -17430, -13279, 6610, 3507, -23289, 21984, 16719, -12689, -33416, -93262, 16156, -7792, 11146, -31712, -18293, 15042, -69072, -11995, -117130, -47769, 24938, 5361, 16126, -2924, 16704, -12625, 2072, 6971, -55686, -5290, 14471, 3141, -17391, -9631, 66512, -5905, -9020, 2855, -71518, -9943, -32476, -40663, -2727, 6059, 9546, -41928, -21327, 8820, -59211, 8215, -75958, 17478, -1534, -871, 25226, -1596, -14933, -4354, -5434, 8795, -74081, -10096, -266, -53050, -13651, -729, -5485, -96257, -4081, -296, -594, 10106, 12867, -13217, -58929, 6662, -44321, -31111, 3896, -16426, -19208, -19687, -28171, -98489, -1405, 3428, -10199, -1969, 2845, 627, -19729, 11756, -14367, -5217, -2828, -25260, -22143, -8125, -96935, -56420, -18026, -32877, 604, -15271, 16814, 14829, -6317, -64947, 7508, -54196, -14736, 3347, 17672, -31487, -2546, -26974, -1357, -34385, -96269, 1853, -128135, 4835, -124831, -58120, 16544, -11631, -64315, -38253, -24238, 9827, -621, -827, -18741, -4841, -13043, 9769, -9250, -50469, -31466, 11368, -59885, -11487, 8258, -16961, -38164, 19956, -58698, -48194, -1424, 3078, -4801, -8294, 7558, -5264, 1611, -15128, -58031, -28827, -29141, -80324, 4177, 2668, -28890, -76806, -774, -58167, -919, -6451, 1336, -6961, -12752, -33828, 13935, -78734, -15778, -37263, 2804, -10368, 14478, -65904, -1929, -32585, -51618, -3116, -133236, -2771, -65609, -16317, 14758, -89574, -28100, -34876, -1535, -9060, -8879, -101755, 9141, -5780, 5966, 11797, 7580, -17143, -56218, 5469, -30944, -158041, 12264, -77660, 6308, -31916, -2925, -170474, 1273, -9567, 7304, 10533, -32473, -7312, -1138, -33, -11299
};

const int32_t fc_bias_q[] = {
    5949, 11841, 19002, 7923, -42078, -22935, 13421, -27410, -13383
};

const int32_t NORM_MEAN_Q[] = {
    -857, -243, -225, -649, 409, -650, 7987, 18359, 19120, 13266
};

const int32_t NORM_INV_STD_Q[] = {
    284436, 366904, 315979, 500005, 308921, 471566, 225903, 150451, 147412, 240445
};

#endif
